Language model created by QuickLM on Fri Mar 27 06:02:24 EDT 2020
Copyright (c) 1996-2010 Carnegie Mellon University and Alexander I. Rudnicky

The model is in standard ARPA format, designed by Doug Paul while he was at MITRE.

The code that was used to produce this language model is available in Open Source.
Please visit http://www.speech.cs.cmu.edu/tools/ for more information

The (fixed) discount mass is 0.5. The backoffs are computed using the ratio method.
This model based on a corpus of 13 sentences and 37 words

\data\
ngram 1=37
ngram 2=58
ngram 3=49

\1-grams:
-1.0621 </s> -0.3010
-1.0621 <s> -0.2389
-1.8751 A -0.2923
-1.8751 AM -0.2553
-1.8751 ARE -0.2803
-2.1761 BY -0.2981
-2.1761 COULD -0.2833
-2.1761 DO -0.2833
-2.1761 DOES -0.2981
-2.1761 ENOUGH -0.2617
-2.1761 HELLO -0.2617
-1.6990 I -0.2923
-2.1761 IN -0.2981
-2.1761 IT -0.2981
-1.8751 JOKE -0.2553
-2.1761 KNOW -0.2952
-2.1761 MATTER -0.2617
-2.1761 ME -0.2952
-2.1761 MEET -0.2833
-2.1761 NANKAI -0.2981
-2.1761 NEED -0.2952
-2.1761 NEXT -0.2952
-2.1761 NICE -0.2952
-2.1761 NOT -0.2981
-2.1761 NOW -0.2617
-1.8751 PLEASE -0.2585
-2.1761 RELAX -0.2981
-2.1761 RIGHT -0.2617
-2.1761 STUDENT -0.2981
-2.1761 TELL -0.2981
-2.1761 THANK -0.2833
-2.1761 THE -0.2981
-1.8751 TO -0.2952
-2.1761 UNIVERSITY -0.2617
-2.1761 WAY -0.2617
-1.8751 WHO -0.2863
-1.3979 YOU -0.2455

\2-grams:
-1.4150 <s> BY 0.0000
-1.4150 <s> COULD 0.0000
-1.4150 <s> DO 0.0000
-1.4150 <s> ENOUGH 0.0000
-1.4150 <s> HELLO 0.0000
-1.1139 <s> I 0.0000
-1.4150 <s> IT 0.0000
-1.4150 <s> NEXT 0.0000
-1.4150 <s> NICE 0.0000
-1.4150 <s> THANK 0.0000
-1.4150 <s> WHO -0.1761
-1.4150 <s> YOU -0.2632
-0.6021 A JOKE -0.1761
-0.6021 A STUDENT 0.0000
-0.6021 AM </s> -0.3010
-0.6021 AM A -0.1761
-0.6021 ARE RIGHT 0.0000
-0.6021 ARE YOU -0.1761
-0.3010 BY THE 0.0000
-0.3010 COULD YOU -0.2632
-0.3010 DO YOU -0.2632
-0.3010 DOES NOT 0.0000
-0.3010 ENOUGH </s> -0.3010
-0.3010 HELLO </s> -0.3010
-0.4771 I AM 0.0000
-0.7782 I NEED 0.0000
-0.3010 IN NANKAI 0.0000
-0.3010 IT DOES 0.0000
-0.6021 JOKE </s> -0.3010
-0.6021 JOKE PLEASE -0.1761
-0.3010 KNOW WHO -0.1761
-0.3010 MATTER </s> -0.3010
-0.3010 ME A -0.1761
-0.3010 MEET YOU -0.1761
-0.3010 NANKAI UNIVERSITY 0.0000
-0.3010 NEED TO -0.1761
-0.3010 NEXT JOKE -0.1761
-0.3010 NICE TO -0.1761
-0.3010 NOT MATTER 0.0000
-0.3010 NOW </s> -0.3010
-0.6021 PLEASE </s> -0.3010
-0.6021 PLEASE TELL 0.0000
-0.3010 RELAX NOW 0.0000
-0.3010 RIGHT </s> -0.3010
-0.3010 STUDENT IN 0.0000
-0.3010 TELL ME 0.0000
-0.3010 THANK YOU -0.1761
-0.3010 THE WAY 0.0000
-0.6021 TO MEET 0.0000
-0.6021 TO RELAX 0.0000
-0.3010 UNIVERSITY </s> -0.3010
-0.3010 WAY </s> -0.3010
-0.6021 WHO ARE -0.1761
-0.6021 WHO I -0.1249
-0.6021 YOU </s> -0.3010
-1.0792 YOU ARE -0.1761
-1.0792 YOU KNOW 0.0000
-1.0792 YOU PLEASE -0.1761

\3-grams:
-0.3010 <s> BY THE
-0.3010 <s> COULD YOU
-0.3010 <s> DO YOU
-0.3010 <s> ENOUGH </s>
-0.3010 <s> HELLO </s>
-0.6021 <s> I AM
-0.6021 <s> I NEED
-0.3010 <s> IT DOES
-0.3010 <s> NEXT JOKE
-0.3010 <s> NICE TO
-0.3010 <s> THANK YOU
-0.3010 <s> WHO ARE
-0.3010 <s> YOU ARE
-0.3010 A JOKE </s>
-0.3010 A STUDENT IN
-0.3010 AM A STUDENT
-0.3010 ARE RIGHT </s>
-0.3010 ARE YOU </s>
-0.3010 BY THE WAY
-0.3010 COULD YOU PLEASE
-0.3010 DO YOU KNOW
-0.3010 DOES NOT MATTER
-0.6021 I AM </s>
-0.6021 I AM A
-0.3010 I NEED TO
-0.3010 IN NANKAI UNIVERSITY
-0.3010 IT DOES NOT
-0.3010 JOKE PLEASE </s>
-0.3010 KNOW WHO I
-0.3010 ME A JOKE
-0.3010 MEET YOU </s>
-0.3010 NANKAI UNIVERSITY </s>
-0.3010 NEED TO RELAX
-0.3010 NEXT JOKE PLEASE
-0.3010 NICE TO MEET
-0.3010 NOT MATTER </s>
-0.3010 PLEASE TELL ME
-0.3010 RELAX NOW </s>
-0.3010 STUDENT IN NANKAI
-0.3010 TELL ME A
-0.3010 THANK YOU </s>
-0.3010 THE WAY </s>
-0.3010 TO MEET YOU
-0.3010 TO RELAX NOW
-0.3010 WHO ARE YOU
-0.3010 WHO I AM
-0.3010 YOU ARE RIGHT
-0.3010 YOU KNOW WHO
-0.3010 YOU PLEASE TELL

\end\
